{
  "O3": {
    "weights": [ 0.0, 0.07230986418652653, 0.4160721301285209, 0.18579584421943768, -0.1643969201067098, 1.4324469991422648, -0.12546586464600012 ],
    "intercept": -186.41827760344097
  },
  "CO": {
    "weights": [ 0.0, -0.0, 0.0, 0.0, -0.0, -8.728608466768063e-06, 1.4357179882804295e-05, -0.0, -3.962945202714216e-05, -3.867204518216653e-07, -2.060444498008262e-05, 1.083013338506562e-05, 0.0, -0.0, 4.694282215946266e-05 ],
    "intercept": -0.028363721106486328
  },
  "NO2": {
    "weights": [ 0.0, -0.0, 0.0, 0.0, -0.0, 0.0, -0.0, 0.0, -0.0, 0.000860361445119428, 1.4103861512856326e-05, -7.285684231575184e-05, -0.00010504628804771831, -0.0005577372965488009, 0.00030074302236256207, 0.0001358903534236543, -0.00033488851573922464, -0.00012026336884163385, -5.734607438455616e-05, -7.658389153104979e-05, -0.0017058139025766337, 3.39026286174402e-05, 0.0011525399770816068, -0.0002680356334287563, -0.0008941111476869357, -0.00012858214114180736, -4.42014149122897e-05, -1.855884378895224e-05, -0.0003002812405121397, -0.00039001091852163737, -9.277183606044659e-05, 0.0037242866272783454, -0.0003546177050616209, -0.0008689149792320277, 8.465202639161321e-05, 0.00014718066030555113, 0.0008011101570634587, -0.009397348543152724, -0.0010362001034199006, -0.00027570645428680497, 0.004493717045613808, 0.0002641043755751236, 0.000553627470498921, -0.008797524873567079, 0.002613030082755843 ],
    "intercept": -15.116433013118854
  }
}
